digraph Tree {
node [shape=box, style="filled, rounded", color="black", fontname=helvetica] ;
edge [fontname=helvetica] ;
0 [label="petal width (cm) <= 0.8\nmse = 0.67\nsamples = 150\nvalue = 1.0", fillcolor="#f2bf9b"] ;
1 [label="mse = 0.0\nsamples = 50\nvalue = 0.0", fillcolor="#ffffff"] ;
0 -> 1 [labeldistance=2.5, labelangle=45, headlabel="True"] ;
2 [label="petal width (cm) <= 1.75\nmse = 0.25\nsamples = 100\nvalue = 1.5", fillcolor="#eb9f69"] ;
0 -> 2 [labeldistance=2.5, labelangle=-45, headlabel="False"] ;
3 [label="mse = 0.08\nsamples = 54\nvalue = 1.09", fillcolor="#f1b992"] ;
2 -> 3 ;
4 [label="mse = 0.02\nsamples = 46\nvalue = 1.98", fillcolor="#e58139"] ;
2 -> 4 ;
}